{"w":[0.002081331357756181,-0.0014193577874118792,-0.0037008583704282727,-0.00002029548385819313,-0.007021955818607,0.003985194719219043,-0.0018652073025936982,0.00438535388439441,-0.005390364457759536,-0.00202919475597931,-0.0013198189554685718,-0.005142302177698288,0.002373044914891133,0.0013316473073437113,-0.006953728864943956,-0.0033050045281793217,-0.00763594735487432,0.006431618716482434,-0.007469856790488522,-0.006960641295678428,-0.0035131492783440146,-0.0023062831080960158,-0.0008751004073821655,0.0048564977068793775,0.002605481689998664,0.003214839213263411,0.0033155249728176323,0.00011151719853819478,-0.00621243926281497,-0.002974378196898637,-0.006498456476522522,-0.007774491655938881,0.006422237556235838,0.006678639597631835,-0.001243897194647365,-0.006777041644957192,0.000878206496642055,-0.00505830676523318,0.0029753323643961077,-0.004897703331372369,0.001968641539205696,0.005055248221403113,-0.0027802428126387996,0.00687713618366053,-0.0015707740370378654,-0.0064960948691710095,0.007120602564545043,-0.0028246856591312456,0.007418972314159977,-0.0023416402086470717,-0.0002098246971127789,0.000451138484362781,-0.006078550330610825,0.0007862504278821625,-0.004062202331132473,0.006745157863255528,-0.0004838518381010404,0.002127493714288952,0.006689117157339532,-0.00529670637881521,0.0077911127632808615,0.004080817707306282,0.005514568095638517,0.007168313642932512,0.004515938096631237,-0.007014166921284686,-0.0012351465265321463,-0.006929858810937842,-0.0004196159508644288,-0.005409129049711728,-0.006615107108251737,0.0051804989039215855,0.002497330124384533,-0.0017107876763314727,0.0038252712165452105,-0.006110968106109238,-0.006037431101707005,0.0047471728106393205,0.0009733290632350008,0.005744856360911817,0.006223103304702646,0.005789402795603284,-0.00019821593200125814,0.0016895730154289027,-0.006650233234126336,-0.0009739736278293141,0.0010522954949817344,-0.00023142581215435457,0.00449759565834567,0.0038872173126531014,-0.003530377248385989,0.0003108419003173494,0.007423220249872785,-0.002129165385760189,0.0003070704984529382,-0.00038684324178943786,0.006206164304831438,0.003908056188822248,-0.004930140543817204,-0.005641650166539555,-0.006849910693920634,-0.0024993008900050465,0.006521639831606285,-0.0005904285330378669,0.003281101372686935,-0.004380176746774876,0.0016144556766440003,0.005425733515054907,-0.0017704591126831539,0.0070347205289569715,0.002047411991968614,0.007185108744060078,-0.004246905802804573,-0.005332302354547043,-0.0019539533308042794,-0.002136789441480209,-0.003893988314154784,-0.004477293206833668,0.002426787490268008,0.0053840499243783466,0.002663525599827873,0.00683168171476374,-0.0003030777144560409,0.006468701828177256,-0.002930279725460271,0.0007781343606824039,0.00010471725275511268,0.002147185339605463],"b":0.047951320143204926,"input_dim":128}